svm_type c_svc
kernel_type rbf
gamma 0.001
nr_class 2
total_sv 9
rho 0.245604
label 1 2
probA -6.10664
probB 2.58255
nr_sv 6 3
SV
0.8631641449296783 1:-0.96002462 2:-2.8687365 3:-2.6204917 4:-3.5511674 5:-3.4607499 6:-3.1172044 7:-3.9991334 8:-2.8339798 9:-2.3926609 10:-2.2782588 11:-1.7574906 12:-0.32005497 13:0.23003545 14:0.33563997 15:-0.0011156238 16:0.058413304 17:0.20866245 18:0.65422829 19:0.55793846 20:0.3623453 21:0.12349317 22:0.075515402 23:0.04757416 24:0.21182457 25:0.15715932 26:-0.11307881 27:1.367591 28:0.81677529 29:1.7028075 30:3.2435162 31:2.8416951 32:2.5665185 33:0.84030541 34:0.10462752 35:0.11164694 36:0.15859747 37:0.055782336 38:-0.32993638 39:-0.61104844 40:-0.18681337 41:-0.51282945 42:-0.62828017 43:-0.9893676 44:-0.82811031 45:-0.92012532 46:-0.29254197 47:-0.33950759 48:-0.10065132 49:-0.36026455 50:-0.2327336 51:-0.6620189 52:-0.57287094 53:-0.01836421 54:-1.4925087 55:-1.6695899 56:-0.23901989 57:1.6848862 58:0.8585485 59:-0.1510375 60:-0.46778929 61:-1.3080769 62:-0.45259536 63:0.083784606 64:0.2426433 65:-0.24571208 66:-0.67831581 67:-0.54551853 68:0.2990999 69:0.96309124 70:1.0239967 71:1.083642 72:0.59518701 73:0.14225476 74:0.49038967 75:0.19579714 
0.9194835736620046 1:-0.98780862 2:-1.6825728 3:0.62521061 4:2.6443889 5:5.0042672 6:5.3048148 7:6.6764011 8:3.9815074 9:1.0269217 10:-0.64201064 11:4.1069092 12:6.5638593 13:4.6085846 14:4.8579964 15:4.3843635 16:5.3459035 17:5.8637594 18:3.2938951 19:2.2582873 20:1.7343908 21:2.177758 22:2.5461159 23:1.9111744 24:1.9323165 25:0.48712007 26:-1.2475252 27:-2.9891508 28:-4.7597911 29:-3.8458476 30:-4.8919224 31:-4.8374454 32:-6.0033255 33:-3.3118448 34:-2.2968877 35:-2.5350414 36:-3.9537974 37:-2.0792733 38:-1.8557046 39:-1.6354769 40:-1.4586397 41:-3.8142629 42:-2.7551945 43:-1.69507 44:-0.74167259 45:-2.2091035 46:-2.7583374 47:-3.7077469 48:-2.4639379 49:-2.9651851 50:-0.71184718 51:-1.0997104 52:-4.1838304 53:-4.3984069 54:-6.4083686 55:-4.3780762 56:-2.2888561 57:0.10804581 58:4.5142346 59:3.4942583 60:3.193395 61:3.4670612 62:1.1248837 63:1.3918036 64:0.25699687 65:1.1665139 66:3.4410018 67:3.598688 68:3.6492114 69:3.7065104 70:2.4001796 71:2.8199155 72:2.1173478 73:0.92682693 74:0.35658552 75:-0.01203786 
0.7692490551220255 1:-0.89210817 2:-0.9433405 3:0.21389063 4:1.0069269 5:1.7224863 6:1.3591117 7:-0.23727193 8:-2.4497798 9:-1.7826943 10:-0.030613731 11:-3.9484134 12:-4.5808112 13:-1.8748571 14:-0.30438983 15:0.963841 16:0.52474708 17:-0.62220575 18:0.1769021 19:2.6255626 20:2.1779075 21:1.4301506 22:0.88131497 23:0.69676694 24:0.51682361 25:-0.015130355 26:1.5605531 27:5.2136402 28:-0.75665073 29:-3.9991017 30:-5.5195764 31:-2.9011113 32:-0.4984079 33:4.3256628 34:6.3819578 35:3.6292576 36:0.09408579 37:-0.088032443 38:-0.76408618 39:-2.939392 40:-1.5832785 41:2.77278 42:4.6381032 43:1.6977725 44:-3.2701894 45:-4.281953 46:-2.014975 47:-1.7045751 48:-1.2177807 49:-1.4353339 50:-0.11550812 51:-0.45983929 52:-0.75018686 53:-0.93012373 54:-0.55008747 55:3.0679314 56:5.2704194 57:2.6147135 58:-3.9533362 59:-5.197646 60:-4.6073847 61:-3.6076081 62:-0.18384926 63:5.6879689 64:4.940617 65:6.0997755 66:4.8514612 67:2.078393 68:1.7078197 69:0.92456832 70:-2.7883095 71:-5.1268665 72:-4.364258 73:-2.3629637 74:-2.7270572 75:-0.58339109 
0.9269911086141184 1:-0.70996861 2:0.4279941 3:0.62772725 4:1.6162815 5:0.9137686 6:0.91873755 7:1.4014167 8:1.247916 9:1.4758348 10:0.84800013 11:0.27260247 12:0.0066983975 13:0.30795075 14:0.33578858 15:0.29110454 16:0.058799826 17:-0.0611573 18:-0.19943118 19:-0.49994437 20:-0.67127165 21:-0.49005925 22:-0.38814473 23:-0.40321637 24:-0.50694319 25:-0.064966597 26:-0.83918201 27:0.74870241 28:0.82519454 29:-0.59242971 30:-0.11455379 31:-0.34511249 32:-0.90821425 33:-1.1715682 34:-1.3220082 35:-1.5505394 36:-2.5408644 37:-1.4530964 38:-1.2731742 39:-0.56124338 40:-0.32460911 41:-0.18484852 42:0.029365377 43:0.69760307 44:0.85649489 45:1.4048249 46:0.69385691 47:0.59074851 48:0.50441425 49:0.79895815 50:0.11572384 51:-0.39481396 52:0.05671076 53:-0.50196527 54:0.55088018 55:0.61474555 56:0.96137058 57:0.69004072 58:1.2648063 59:1.0849118 60:1.3307997 61:2.0604468 62:0.87906026 63:1.4398418 64:0.44794809 65:0.2953313 66:-0.12172833 67:-0.23783674 68:-0.41585693 69:-0.95269535 70:-0.80468113 71:-0.4505444 72:-0.35098178 73:-0.45749722 74:-0.46147391 75:0.037786034 
0.8892130797327249 1:1.5004031 2:1.5072348 3:3.0084947 4:5.0057516 5:3.7101024 6:1.4926113 7:-0.070862281 8:-2.9288744 9:-6.3332159 10:-7.2295647 11:-3.723614 12:-2.37161 13:-4.2979136 14:-6.5866425 15:-5.8756948 16:-4.4719182 17:-0.13977811 18:4.1035899 19:6.7921586 20:6.4940411 21:7.2298227 22:7.5687382 23:5.8298124 24:7.8249702 25:2.5279553 26:1.9919016 27:3.0980192 28:2.1510085 29:-2.2630439 30:-2.442893 31:-1.6420938 32:-2.2389262 33:-1.8645384 34:-1.0913541 35:1.0876548 36:5.8383952 37:5.8768689 38:6.617526 39:6.7813904 40:5.7273076 41:5.6820688 42:1.3630746 43:-2.3099276 44:-3.0504829 45:-5.5940189 46:-5.130617 47:-7.1990942 48:-4.7657554 49:-7.3766315 50:-1.9862959 51:1.34557 52:0.52295477 53:-0.19989745 54:3.6098482 55:1.5287789 56:-0.43883185 57:-0.089550435 58:1.2947643 59:0.040762373 60:-1.6430591 61:-4.1030861 62:-2.7562527 63:-4.0161611 64:-1.4630624 65:-1.1475142 66:1.2102874 67:3.3831452 68:4.5321544 69:2.6810296 70:-0.64642674 71:-1.2954687 72:0.22382779 73:1.2488149 74:3.5952987 75:1.0034307 
1.209894671289011 1:1.4854085 2:-0.85618823 3:-0.091963845 4:-0.71395654 5:-0.54321108 6:-0.16407063 7:0.020191618 8:0.60295666 9:0.25773018 10:0.38092521 11:0.22235807 12:0.25569962 13:0.32868351 14:0.1987442 15:0.11079319 16:-0.11985563 17:-0.22989036 18:-0.21975522 19:0.067279983 20:-0.16194828 21:-0.11708659 22:-0.1262605 23:-0.027276452 24:-0.1366149 25:-0.12508896 26:0.79562856 27:-0.61648845 28:-0.55245684 29:0.64952114 30:0.93281576 31:0.37930428 32:0.017938025 33:0.060021193 34:0.35923514 35:0.29055528 36:0.65382154 37:0.48172883 38:0.49888517 39:0.9211932 40:0.87650258 41:0.87243148 42:0.9995226 43:1.0023726 44:0.36156547 45:0.62692785 46:0.41713564 47:0.32181534 48:0.06177879 49:0.18472216 50:0.16562482 51:1.3860059 52:0.40643193 53:0.64569389 54:-0.75251167 55:-1.4505491 56:-1.020305 57:-0.98695652 58:-1.6804178 59:-0.57654207 60:-0.36536722 61:-0.72059313 62:-0.65709131 63:-1.4086131 64:-0.49029683 65:-0.57259239 66:-0.78283153 67:-0.64331359 68:-0.49587914 69:-0.23714711 70:-0.21898008 71:-0.0034446367 72:-0.1455247 73:-0.042083854 74:0.15388352 75:0.043037126 
-1.66234150447009 1:-1.081304 2:2.3685955 3:2.4401485 4:-4.6672712 5:-3.3166017 6:5.4377837 7:0.21246943 8:-5.8755957 9:3.3392396 10:3.8888884 11:4.2562689 12:2.0699091 13:-4.3125394 14:-2.7394571 15:3.7389918 16:5.2853632 17:-5.4998589 18:-6.6827508 19:2.0186661 20:4.4158173 21:2.2719619 22:-3.0869468 23:-4.1990064 24:2.8161906 25:5.0107515 26:-0.92976518 27:-1.3771646 28:3.4842905 29:2.7218543 30:-0.59004682 31:-4.8277676 32:1.8056284 33:6.2821799 34:-1.2760862 35:-5.2480524 36:-4.2097081 37:5.0284613 38:4.9492581 39:-2.4297933 40:-5.3852775 41:-3.4747364 42:5.5674734 43:5.7831315 44:-1.9426372 45:-3.9771445 46:-2.8677995 47:2.6989233 48:4.4945558 49:-2.843603 50:-5.3744363 51:-1.1844073 52:-0.39276525 53:5.194083 54:3.1997394 55:-5.2588334 56:-2.7944759 57:6.0874679 58:-0.28970187 59:-3.4272457 60:1.8054208 61:3.3770684 62:-0.78564963 63:-2.2405267 64:-0.22404122 65:-1.2852382 66:3.4807344 67:0.90887399 68:-3.9996741 69:-1.2089542 70:2.7430399 71:2.8627803 72:-2.3408535 73:-2.6930165 74:2.8476225 75:1.6390281 
-2.214079145780392 1:-0.95296836 2:0.77807466 3:0.71538779 4:-0.72095708 5:0.43783873 6:1.2218837 7:-2.6530124 8:1.1454216 9:1.3749063 10:-0.50643401 11:-2.6188922 12:-1.1847623 13:2.8920683 14:-1.4038053 15:-0.94831599 16:0.46226754 17:1.0582294 18:1.159237 19:-3.6226234 20:0.33326958 21:1.4113364 22:-0.42313315 23:-1.1588822 24:0.21317983 25:0.83397213 26:1.921448 27:-3.1780615 28:-4.2720383 29:5.2550349 30:-1.3598234 31:-2.8247128 32:5.0002964 33:-0.88842581 34:-5.0532673 35:4.8156998 36:0.34177523 37:-2.0389546 38:-1.0681207 39:3.1782129 40:-2.1424115 41:2.8115245 42:-0.74301821 43:-5.2227892 44:5.3493868 45:0.042865261 46:-1.9740849 47:0.013206014 48:1.6280307 49:-0.0232787 50:-1.3021722 51:-0.55000047 52:0.22082099 53:1.5138637 54:-0.9346194 55:-1.7795277 56:5.1834916 57:-4.9958806 58:-1.2213932 59:4.8926209 60:-4.0073631 61:-3.6014282 62:5.3016484 63:2.1672431 64:-5.6554707 65:2.1243804 66:4.7281325 67:-2.0253651 68:-3.7460795 69:3.4522555 70:3.7309814 71:-5.1191602 72:-0.5644591 73:2.7050376 74:0.162823 75:-1.6822626 
-1.701574983099081 1:0.98661955 2:-0.17901608 3:6.6022228 4:0.49632375 5:-2.8254187 6:-1.0520113 7:2.5997933 8:0.68052967 9:-3.2746596 10:-0.38266954 11:-0.43356815 12:0.51146129 13:2.6550171 14:-0.51121487 15:-2.837066 16:-0.18417522 17:3.3021185 18:1.6705844 19:-0.27492862 20:-2.2932818 21:-3.0881119 22:1.5187084 23:4.4492948 24:-1.4302726 25:-6.7322662 26:1.9832746 27:0.30840212 28:-2.8543857 29:0.6802132 30:0.41711391 31:0.31789681 32:0.25141337 33:-1.0541094 34:-0.74993295 35:1.7572648 36:1.3133266 37:-2.5265177 38:0.84161936 39:1.1543625 40:-2.0156983 41:1.070992 42:3.3471429 43:-1.4571646 44:-4.6655979 45:0.71759793 46:5.0508112 47:0.2931262 48:-4.8667696 49:-0.13539759 50:6.5236925 51:1.3269913 52:-0.0034984183 53:1.4145992 54:0.058222801 55:-1.3013903 56:-1.9102748 57:0.62341316 58:5.5938705 59:-1.0653483 60:-4.5410393 61:1.9957253 62:6.129507 63:3.400054 64:-4.238464 65:-5.5728035 66:0.93016945 67:6.3940784 68:3.1177442 69:-6.3302265 70:-6.3561989 71:-2.2578834 72:6.9064445 73:7.3629066 74:-6.9063057 75:-8.3738219 
